
//<![CDATA[

// a few things don't have var in front of them - they update already existing variables the game needs
lanesSide = 2;
patchesAhead = 9;
patchesBehind = 6;
trainIterations = 10000;

// the number of other autonomous vehicles controlled by your network
otherAgents = 0; // max of 10

var num_inputs = (lanesSide * 2 + 1) * (patchesAhead + patchesBehind);
var num_actions = 5;
var temporal_window = 3;
var network_size = num_inputs * temporal_window + num_actions * temporal_window + num_inputs;

var layer_defs = [];
    layer_defs.push({
    type: 'input',
    out_sx: 1,
    out_sy: 1,
    out_depth: network_size
});
layer_defs.push({
    type: 'fc',
    num_neurons: 6,
    activation: 'relu'
});
layer_defs.push({
    type: 'fc',
    num_neurons: 9,
    activation: 'relu'
});
layer_defs.push({
    type: 'fc',
    num_neurons: 11,
    activation: 'relu'
});
layer_defs.push({
    type: 'regression',
    num_neurons: num_actions
});

var tdtrainer_options = {
    learning_rate: 0.001,
    momentum: 0.0,
    batch_size: 64,
    l2_decay: 0.01
};

var opt = {};
opt.temporal_window = temporal_window;
opt.experience_size = 3000;
opt.start_learn_threshold = 500;
opt.gamma = 0.7;
opt.learning_steps_total = 10000;
opt.learning_steps_burnin = 1000;
opt.epsilon_min = 0.0;
opt.epsilon_test_time = 0.0;
opt.layer_defs = layer_defs;
opt.tdtrainer_options = tdtrainer_options;

brain = new deepqlearn.Brain(num_inputs, num_actions, opt);

learn = function (state, lastReward) {
brain.backward(lastReward);
var action = brain.forward(state);

draw_net();
draw_stats();

return action;
}

//]]>

/*###########*/
if (brain) {
brain.value_net.fromJSON({"layers":[{"out_depth":315,"out_sx":1,"out_sy":1,"layer_type":"input"},{"out_depth":6,"out_sx":1,"out_sy":1,"layer_type":"fc","num_inputs":315,"l1_decay_mul":0,"l2_decay_mul":1,"filters":[{"sx":1,"sy":1,"depth":315,"w":{"0":0.05643406110816013,"1":0.06167899427148728,"2":-0.03887099859512449,"3":0.03948100492602151,"4":0.04650696448170002,"5":-0.05552462621872964,"6":0.03354896687016075,"7":-0.045890951896436626,"8":0.0013804473204169657,"9":0.0011775124970989674,"10":0.13839231109162164,"11":-0.014831496714807641,"12":0.0404410568303021,"13":-0.07235389239466736,"14":-0.033006688013251406,"15":0.02537345731135712,"16":0.005103245618899612,"17":0.08419854660231381,"18":-0.037143798947003315,"19":0.0018790423377619374,"20":-0.039493798014588785,"21":-0.04610093623400307,"22":0.1543983271807546,"23":-0.0921704057156976,"24":0.078086713942143,"25":0.023366795528296423,"26":0.07411142767552278,"27":0.06255862418918592,"28":-0.04326581898695454,"29":0.004552404717465702,"30":-0.04305425085958801,"31":0.057976051009253696,"32":0.021425738617826533,"33":0.040213334634389045,"34":-0.006959428483226784,"35":0.008259118145397246,"36":-0.03478339133751401,"37":-0.000984538929870573,"38":-0.08868562395049766,"39":0.006188775966624964,"40":0.03493419546173584,"41":-0.05482151791416294,"42":-0.004469449528969995,"43":-0.015652521695957586,"44":-0.020137661534605375,"45":-0.0597743044046529,"46":-0.01797957801729774,"47":0.03675817698384246,"48":0.025339917070068992,"49":-0.0825522436394175,"50":-0.08849525085010276,"51":-0.027366715055159356,"52":0.11389280410628468,"53":-0.03467781641188936,"54":0.028230226564485296,"55":-0.09796632489109078,"56":-0.006872502143237251,"57":-0.09086593241320481,"58":0.02604981770910598,"59":-0.09389850090953511,"60":-0.0029840238605753602,"61":0.0012977318616095995,"62":0.08125737452353839,"63":-0.09243603919110056,"64":0.029911010873761388,"65":0.06903303016736137,"66":-0.023686930992714243,"67":0.011108897753741784,"68":-0.03320092594894255,"69":0.047039549375401196,"70":-0.015566347256499805,"71":0.08116651122242728,"72":-0.012979725064819625,"73":-0.06055329270483389,"74":-0.061544752860619806,"75":0.03646439876010168,"76":-0.0455240362156781,"77":-0.14320537650461493,"78":0.07683823194310808,"79":-0.0029067008289310682,"80":0.03656711627914622,"81":-0.013006242779676764,"82":0.04970275903419391,"83":0.08319851062807786,"84":-0.06112427636208149,"85":-0.03529151006559845,"86":-0.014067065483529234,"87":0.041006903255925355,"88":0.1325393017045584,"89":-0.05687984871777175,"90":-0.05872341315039234,"91":0.042246902752464253,"92":0.028888472430810046,"93":0.047881870275681894,"94":-0.014727702546217615,"95":0.04605428759973129,"96":-0.04170622179725262,"97":0.04639521425147346,"98":0.00135889366551921,"99":-0.005858159180371849,"100":0.028394723459266788,"101":0.04839004942361461,"102":0.027304193983407478,"103":-0.006896978753838137,"104":-0.032131450654053685,"105":0.06797154232924528,"106":-0.0590334229396112,"107":0.09875673254932811,"108":-0.0030510214639140718,"109":-0.08022979014508887,"110":-0.019056988940433162,"111":-0.02636569649929147,"112":0.08714530449447327,"113":-0.03432123900309958,"114":0.04550260662427086,"115":0.06493812739619749,"116":0.1127027886209708,"117":-0.08217123381838816,"118":-0.09290395510236196,"119":0.018881250520051202,"120":-0.002541180119748282,"121":0.019045685596115202,"122":-0.014460453414071529,"123":0.04502490281558006,"124":0.05042793246674137,"125":-0.02693566602538689,"126":-0.007486318904171141,"127":-0.05718554208261658,"128":0.11099106502316693,"129":-0.1127343004143714,"130":-0.020917095567419434,"131":0.011443689243387225,"132":-0.07150598604088608,"133":0.06101146361284675,"134":-0.003126535106319994,"135":-0.05078387181886205,"136":-0.09267139514844965,"137":-0.03237385917862228,"138":-0.06681003681187639,"139":0.11645639982706052,"140":0.006721524059461124,"141":-0.00647547389800534,"142":0.008749044532857988,"143":-0.027412923480424137,"144":-0.009420655881412028,"145":0.002538294387151523,"146":-0.05642807103124951,"147":-0.03942762812468274,"148":-0.08610970494442137,"149":0.015399790147458662,"150":-0.016567527315923352,"151":-0.045327252559074285,"152":-0.044513826826115876,"153":-0.04500976768605269,"154":0.0037219028674221923,"155":0.026080849618052026,"156":0.004564872108670403,"157":-0.060310337836846445,"158":0.007676073504074162,"159":0.03149029860044554,"160":-0.03871953740407163,"161":0.051338561956368586,"162":0.0679276293665914,"163":0.006481253080135272,"164":0.031163880422897867,"165":0.017073087699371253,"166":-0.06580376504711645,"167":0.04751320242360425,"168":-0.06459355233663243,"169":0.014536084419224417,"170":-0.027592226304518016,"171":-0.0012572362539503901,"172":0.055818771285007625,"173":0.07416245702057736,"174":-0.03977311971158099,"175":-0.10623192565893576,"176":-0.018304035684635712,"177":-0.006360844951781147,"178":-0.08992490927908,"179":0.06500726819126869,"180":0.056846006919862024,"181":-0.018038066989041594,"182":0.05294947080933482,"183":-0.029046062365549817,"184":-0.08032291100512165,"185":-0.015243644481118531,"186":-0.0032234872657658834,"187":0.03798037675103563,"188":0.024446557637007177,"189":0.005821317925618625,"190":0.023456202253088396,"191":0.07137033314518701,"192":0.01957699472154363,"193":0.09610606975013447,"194":0.08841745778657885,"195":0.08730028529092361,"196":-0.010482652520806381,"197":0.029404688200755594,"198":-0.10293088041738968,"199":-0.14423066264984793,"200":-0.02780383799348733,"201":-0.018182562047653787,"202":-0.054813432128180316,"203":0.05695383664806284,"204":0.05301575782063668,"205":0.042034745738303396,"206":-0.022683090028752934,"207":0.07763926428293931,"208":-0.0009459280453575655,"209":0.06992023826236055,"210":-0.024486080590302335,"211":0.0013849528586835662,"212":-0.03638101048108181,"213":0.010932109156697149,"214":-0.058594585277354276,"215":0.0018731371541558903,"216":-0.009405882683839038,"217":-0.07948803801269126,"218":0.03148040197041078,"219":0.027914939800639436,"220":-0.023382213093625842,"221":-0.007020821017564883,"222":-0.007854791267258458,"223":-0.05692788350818728,"224":0.047117561521363635,"225":-0.06042051464442302,"226":-0.05099404378498215,"227":-0.0965307126010737,"228":0.0021868119548245782,"229":-0.024487379921987004,"230":-0.006515930240161407,"231":0.031432167428919126,"232":0.011645266452372151,"233":-0.007084854010330296,"234":-0.018077539882152393,"235":0.08677273337707372,"236":0.013912211096019526,"237":0.0958854377893917,"238":-0.03042023473953815,"239":-0.00797895674937207,"240":0.004898553434524718,"241":-0.10395871201415079,"242":0.031003759696995505,"243":0.0424073690057113,"244":-0.03338340629403514,"245":0.052542900909716965,"246":-0.07625429755508116,"247":-0.008879639683296855,"248":-0.03253179003005202,"249":0.10269179832966763,"250":-0.09154248652270086,"251":0.04507891889809977,"252":-0.021049564044864095,"253":-0.08288961185100469,"254":-0.012093280010862763,"255":0.0654255680561057,"256":0.011044084810348555,"257":0.05020243996757955,"258":0.07319408828660849,"259":0.062273811608598906,"260":-0.06380551590184202,"261":0.015547702890113162,"262":-0.06526635958798624,"263":0.08026311581377385,"264":-0.047761296480649675,"265":0.08833849658916272,"266":-0.09793405111778601,"267":0.01676490358116846,"268":0.03459056251880485,"269":-0.031387291261250956,"270":0.11008858433040042,"271":0.10459312051188632,"272":0.07883567864227446,"273":-0.0026462122306583724,"274":-0.07475636778944181,"275":-0.030219780800745315,"276":-0.021773250189695934,"277":-0.02734302006940632,"278":0.06245606858695818,"279":0.03967057122528832,"280":0.03297350798073049,"281":0.028104586765330022,"282":0.02134064846439767,"283":0.016620048819455318,"284":0.006639913931813913,"285":-0.1557347053234457,"286":-0.0061049615810828805,"287":0.04883454671555625,"288":0.0011244621533868285,"289":-0.049434778340684674,"290":-0.0038559295921897704,"291":-0.13062014989444085,"292":-0.024996191922440767,"293":0.03674814256472268,"294":0.11173506051568557,"295":-0.020808568454713856,"296":0.04731894835864478,"297":0.002388210272450145,"298":0.0011895888433710792,"299":-0.0567911398486803,"300":-0.019346565854084764,"301":-0.014371828278179871,"302":0.010894839087492796,"303":-0.01783698861618198,"304":0.030247033636216055,"305":-0.006788468759133419,"306":-0.0019154003041074882,"307":-0.035670298035085354,"308":0.0020466411523429157,"309":0.04775493319901003,"310":-0.06440038847014345,"311":-0.023195181599587656,"312":0.00907455782609322,"313":-0.04403356045225227,"314":-0.08895860454029364}},{"sx":1,"sy":1,"depth":315,"w":{"0":-0.024768900683128717,"1":0.10918368352990504,"2":-0.020850603679805735,"3":0.16544314945779176,"4":-0.07190793823455958,"5":0.029289527217269733,"6":0.10090689177666573,"7":0.209477227990846,"8":0.07587544673644167,"9":0.032654990762704346,"10":0.04768338203329068,"11":0.1665900713694458,"12":0.9623029924062902,"13":0.12804670813189253,"14":-0.007506156175011588,"15":-0.06867927550141137,"16":0.06926275644931816,"17":0.8494880679384745,"18":0.04141382403362684,"19":0.0019609024673626295,"20":-0.004830665167568281,"21":0.1286724323784534,"22":0.8579035193884043,"23":0.07197294093210285,"24":-0.00201234336833163,"25":0.016625476053073796,"26":0.04865572822727317,"27":0.7890018408150405,"28":0.12293405949594599,"29":-0.005742555772458112,"30":-0.05302801715614546,"31":0.08314175701581483,"32":-0.00653331591043189,"33":0.020097623500249285,"34":-0.08140115772716491,"35":-0.028010107600476696,"36":0.044460061285630216,"37":0.04868562681571462,"38":0.1443531502363073,"39":-0.09000748685324653,"40":-0.04425250341120468,"41":0.13895010824478263,"42":-0.016631801713526184,"43":0.01548795307007262,"44":0.04493995177788341,"45":-0.01884965228245477,"46":0.17700956736642232,"47":-0.007773348307983095,"48":0.1619727348150849,"49":-0.042486873230413794,"50":0.0017070553201531699,"51":0.004260047717719071,"52":-0.02402749173377927,"53":0.009101275552099332,"54":-0.08799506603302636,"55":0.013345031360360226,"56":0.04619535631626169,"57":-0.03314641596104297,"58":0.09944076160564623,"59":-0.05777051268599565,"60":0.06767134633057992,"61":0.16025292637138844,"62":-0.04455492319117035,"63":0.1475388491290932,"64":-0.028617725198302836,"65":0.003845043026911286,"66":0.005525938661698188,"67":0.020728333392955545,"68":0.0719857795693629,"69":-0.026105156128659556,"70":-0.008804993634584713,"71":0.010900153905650576,"72":0.043258926417716156,"73":-0.00639805484328931,"74":-0.001896549321017521,"75":-0.023656134496622627,"76":0.07237354893920796,"77":0.05490228904164271,"78":0.0028434531897129655,"79":-0.01946971886883347,"80":0.08140795731277284,"81":0.10056673475750628,"82":0.1472288779744121,"83":0.0794168211394746,"84":0.014450882364106932,"85":-0.010170967354221492,"86":0.12173823632784672,"87":0.47131886142505597,"88":0.07303612609584975,"89":-0.12034040857770997,"90":-0.11081872905149487,"91":0.1332533579362127,"92":0.4134573214265657,"93":0.08711777678424498,"94":0.04296810714703055,"95":0.01808185816002878,"96":0.094647657630434,"97":0.3891540720555223,"98":0.12203168827844454,"99":0.018362452240039098,"100":0.004333566242245634,"101":0.13476727365357327,"102":0.3082844509850557,"103":0.046299921425277356,"104":-0.004422128805319283,"105":-0.007292544655345497,"106":0.010010381294478007,"107":0.032165271688584525,"108":0.1573942924298394,"109":-0.045515104225721185,"110":-0.1016642448986191,"111":0.06270564321642,"112":-0.026749675561873663,"113":0.13919709654443443,"114":0.06874129967782253,"115":0.012558249478715906,"116":0.08567252057131798,"117":-0.06003111032055913,"118":-0.018767943615277075,"119":0.011426141754725578,"120":-0.025755558790366607,"121":0.08222696063513286,"122":-0.0048736136288159235,"123":0.044097316182049304,"124":-0.09842658570567965,"125":-0.022174963420436837,"126":0.03889374002765541,"127":0.05706143825501687,"128":0.009296380766650148,"129":-0.029423058096650564,"130":-0.05893458597138177,"131":0.09182247218245333,"132":-0.06114640735415776,"133":0.12073472170631448,"134":0.006324433913458387,"135":0.1549659409970761,"136":-0.015667711603148348,"137":0.003449513201976116,"138":-0.011471734915834635,"139":-0.020516484854350408,"140":0.0697061727676645,"141":0.056937293645717854,"142":-0.020593055362039044,"143":-0.013516461151963909,"144":0.022072252777000062,"145":-0.03061951767256996,"146":0.05191257308849677,"147":-0.048628060448937215,"148":0.02529528023551264,"149":-0.04910029696795252,"150":0.02089914130516202,"151":0.019610203381703103,"152":0.012684732127622611,"153":0.034458844900185095,"154":0.015378856614498625,"155":0.011381124571720318,"156":0.006495179064222628,"157":0.0032095897233201556,"158":0.027661392625330034,"159":0.015880970513819096,"160":0.008934464385436899,"161":-0.06871198384061653,"162":0.07064048746205784,"163":0.023078511494858806,"164":-0.004368591297089801,"165":0.002761035205746253,"166":0.07867724003083215,"167":0.1711447652729355,"168":-0.036581386703266834,"169":0.07790280690388876,"170":-0.10954012056651935,"171":0.12244067539821277,"172":0.09912152470230146,"173":0.05259320600618139,"174":-0.07687752589930766,"175":0.04268611052117293,"176":0.09075230206230261,"177":0.21210106105461687,"178":-0.009656665766125313,"179":-0.09882696274047459,"180":-0.0024327047464485878,"181":0.04556948390199664,"182":0.10736992533603157,"183":0.14768458786684371,"184":0.03241106550226984,"185":-0.06344185157928361,"186":0.11453080773054065,"187":0.01405326419172426,"188":-0.0353181255062621,"189":-0.029842652812010956,"190":-0.027111684516346962,"191":0.0656983898392026,"192":-0.017252658525528507,"193":0.03761291196713718,"194":0.029896735469837333,"195":-0.06078040033841882,"196":0.03042436894527301,"197":-0.09044832749888694,"198":0.03514709130429551,"199":-0.026770584011256964,"200":-0.04040011838874375,"201":0.044031132869784335,"202":-0.025205259812241726,"203":0.028767277093017636,"204":-0.03623912515645675,"205":-0.012126804205867389,"206":0.08033807406161268,"207":0.08988544073123259,"208":0.0018829752379188928,"209":-0.06519271795767954,"210":0.04833545317597998,"211":0.10584683909691002,"212":0.048803032623738966,"213":0.09389495733158648,"214":0.04654217842371775,"215":0.015380529896550045,"216":0.0069510355554423505,"217":0.0276474148706279,"218":-0.0011013407340254102,"219":-0.03008941761949681,"220":-0.03407273556084889,"221":-0.047337994136614374,"222":0.10651881414649228,"223":-0.037640195637682235,"224":-0.0034902174409153102,"225":0.012777656503425931,"226":-0.030153978027161042,"227":-0.06573028126422133,"228":-0.04114979020011383,"229":-0.08546451939562906,"230":0.017957804452896832,"231":0.01799721971361082,"232":0.015002057779450477,"233":0.022489476290796687,"234":0.011179648939614347,"235":-0.034956550506259856,"236":0.14255370366270134,"237":-0.13873691836423857,"238":0.11424785065715162,"239":-0.017949952263800174,"240":0.012105669864458803,"241":-0.02271596060716699,"242":0.05365651220923168,"243":-0.01870116912940689,"244":-0.02898680217639044,"245":0.0069911346129763845,"246":-0.008424845367821112,"247":0.10743886532638847,"248":0.062466554099824344,"249":0.022132061589998045,"250":0.03170901706274966,"251":-0.02608870814600329,"252":-0.027774417792137938,"253":0.07580827648151714,"254":0.06963261188216338,"255":0.009120968892808027,"256":0.07109076831722476,"257":0.12007706595604968,"258":-0.010303818344023658,"259":-0.015635119877272733,"260":0.029373741400801685,"261":0.04850336173382109,"262":0.06513436613498322,"263":0.0982171079096616,"264":-0.09156060133352795,"265":-0.03056733982900951,"266":0.07331317272329045,"267":-0.028518715113003842,"268":0.0760945397625697,"269":-0.060783349680263506,"270":-0.044075542606612575,"271":0.026254887442878464,"272":0.026101765944315694,"273":0.00025327593926284195,"274":0.024542827158155398,"275":0.02470143272737135,"276":-0.0036668791733148955,"277":-0.0316747570131637,"278":0.12229593950234773,"279":-0.04867244595232761,"280":-0.015153905739735643,"281":0.09190887031663589,"282":0.01572923892170863,"283":-0.006396014875135666,"284":-0.08329451683738522,"285":0.013947565706751,"286":-0.007686791840740832,"287":-0.0068596849129167956,"288":0.07895129482888959,"289":-0.02615649033697095,"290":0.007329746957054618,"291":0.02917091679389575,"292":0.03725635296511309,"293":-0.028916506671916226,"294":-0.05543349975749407,"295":0.02132939798915001,"296":0.04657335599253125,"297":-0.007678282498395648,"298":0.007145140179015343,"299":-0.01407279922438899,"300":0.018382075470064357,"301":0.022350586202528843,"302":0.11521500222696451,"303":0.06714523663469799,"304":0.04685588515485152,"305":-0.006854058300796858,"306":-0.0038295649999316147,"307":0.014195659709335002,"308":0.01998870618609472,"309":-0.03258350318537849,"310":-0.0028411868451246364,"311":-0.00032943623376052933,"312":-0.006220981832855928,"313":-0.00036653701383137496,"314":-0.00678568262428482}},{"sx":1,"sy":1,"depth":315,"w":{"0":-0.030363168071380044,"1":0.044770060251085916,"2":0.05860040187439163,"3":0.07099748124423745,"4":-0.03144975470748081,"5":-0.007607927776171418,"6":-0.07061333569891323,"7":0.015072093293114373,"8":-0.09894673037804909,"9":0.06819173575835219,"10":0.08590511322314597,"11":0.07157036890226823,"12":0.03194660090539756,"13":-0.09363000769982206,"14":-0.06697950414464154,"15":0.07473908511939335,"16":0.010928063046891036,"17":-0.03830645221289365,"18":-0.022519469866736117,"19":0.12497433611142277,"20":0.05696197757099069,"21":-0.05511530012842251,"22":-0.07626522527983809,"23":-0.038920682669643776,"24":-0.05018994591860688,"25":-0.043944464585739994,"26":-0.0145789960380946,"27":-0.07354712247826864,"28":-0.044352810968435886,"29":0.05687769402125099,"30":-0.0669627997489413,"31":0.0678802478696429,"32":0.04957732381441836,"33":-0.000016433101184329223,"34":0.014869717972704808,"35":-0.015761009705809126,"36":-0.1879797390984592,"37":0.03415350436984433,"38":0.027514174723092182,"39":-0.028302286278495906,"40":0.05489400367952609,"41":0.005995380702622157,"42":0.06554409449433403,"43":-0.06351720604819983,"44":-0.021575032033561915,"45":-0.029985219038873048,"46":-0.026290697627981096,"47":-0.05824177634379224,"48":-0.004485610202338442,"49":0.043736790470463506,"50":0.08439906391990197,"51":-0.01319792867481027,"52":-0.10562348427259718,"53":-0.022049465707459134,"54":0.11465221046257645,"55":0.042510335525663516,"56":-0.008775229167772593,"57":-0.019191776148280767,"58":-0.14097303174109227,"59":-0.13531801854432904,"60":0.00468580244355638,"61":0.005266707358067444,"62":-0.02729834206722159,"63":-0.036815824235467906,"64":-0.018468654673051574,"65":0.025469878644549436,"66":-0.02179848290070684,"67":0.013786792001056314,"68":0.0013055023208190684,"69":0.03717420709504297,"70":0.032626536685399665,"71":-0.02445215826404366,"72":-0.07913870933811207,"73":0.06866113119056076,"74":0.06602372075465249,"75":0.06849817020387297,"76":0.0775573879316798,"77":0.003490782237785507,"78":0.004094765991863295,"79":-0.000841743082790715,"80":0.03540755719153081,"81":0.02613451303344577,"82":0.05157548791601499,"83":-0.036319865200677606,"84":0.10430953984688049,"85":0.029431013446390063,"86":-0.016135327369209224,"87":0.06259563308102528,"88":-0.04122432587950743,"89":-0.052073220096019765,"90":-0.03371815930929959,"91":0.044744508269692174,"92":-0.04887568152844865,"93":0.09089038264681958,"94":-0.015901424119591005,"95":0.04205152110841802,"96":-0.017896525668296543,"97":-0.03979606007006051,"98":0.02058786116429463,"99":-0.09497012428320993,"100":-0.009967352995264345,"101":-0.06357640206819876,"102":-0.016626186577358225,"103":-0.07906750846742147,"104":-0.029572980289352586,"105":0.06456039131143501,"106":0.025630904154660728,"107":-0.00866213350817878,"108":0.023204491529125054,"109":0.13143755204266047,"110":0.0631092113385408,"111":-0.02366511823791694,"112":-0.028124773454147992,"113":0.04314241689981368,"114":-0.027166793493636158,"115":-0.08197434776587037,"116":-0.05756792848270554,"117":-0.00795861059916581,"118":-0.07022936294182064,"119":-0.009687787917777323,"120":-0.0204211112726573,"121":-0.06522100266537213,"122":0.06375655327385897,"123":-0.008921767485571377,"124":0.012176324924120466,"125":-0.016082542690658314,"126":0.06403384645102685,"127":-0.05296790252274175,"128":-0.10275607976378193,"129":0.029473277714555546,"130":0.019785552560061023,"131":0.06738578237739459,"132":0.0030793772184384473,"133":-0.03540249192466063,"134":-0.1038118526013299,"135":-0.00656186882423326,"136":-0.05796224667462272,"137":0.0794085443238239,"138":0.005224246550329316,"139":0.029464685928272047,"140":0.00946070097985236,"141":-0.040916932550413475,"142":-0.07208467899865084,"143":-0.00954642404315197,"144":0.043699925473445936,"145":0.03580788134974996,"146":0.07470622919336489,"147":0.08260144421064318,"148":0.05898099049137362,"149":0.07915124031344588,"150":-0.0633885331339353,"151":0.028021412415779566,"152":0.0274093917630938,"153":0.12666910544268198,"154":0.028570407249990624,"155":-0.052674822514780784,"156":0.10332396139847902,"157":-0.019618363828006948,"158":0.08687968493371569,"159":-0.03134059055571875,"160":0.031218819642053076,"161":0.03785417542042604,"162":0.01931505279998733,"163":-0.018292519905875243,"164":0.015064881547157702,"165":-0.06339126176845988,"166":-0.04075367873529581,"167":0.10188272991384678,"168":-0.03903306305847204,"169":0.09520588406744376,"170":-0.07366211472669806,"171":-0.11675360078077343,"172":-0.08535369716147857,"173":-0.02776819821833148,"174":0.012823128764701886,"175":-0.010128734877425204,"176":0.042339717199538475,"177":0.020900484881833114,"178":-0.028099244303313762,"179":-0.01713974401556723,"180":0.03571577655265823,"181":-0.0128503297925333,"182":0.042512519939327434,"183":0.02849541369868634,"184":0.048835540629215364,"185":-0.0454739008138187,"186":0.01026357398144727,"187":0.00994554480656829,"188":0.050109576701560424,"189":-0.018127760784139847,"190":0.025544562491427385,"191":-0.013938559851930273,"192":0.026469489521103073,"193":0.13205149013824058,"194":-0.0318583407415713,"195":-0.009603239955095802,"196":0.07727114779139233,"197":-0.06224008152262595,"198":0.0563364304791006,"199":0.025739185879671875,"200":0.03402272919668298,"201":0.014969721637656922,"202":0.00788907397423275,"203":0.0015022022798838338,"204":0.04383471750436458,"205":0.007458200921779197,"206":-0.0941900261126979,"207":-0.04046423249659226,"208":0.0545460433087254,"209":-0.017697134348427682,"210":-0.02975113368528384,"211":-0.11666698107507373,"212":0.011010340941978891,"213":0.05189262435449485,"214":-0.01655397191670215,"215":-0.0025968375774591016,"216":0.07885968978895005,"217":-0.0654414003156141,"218":0.0017430419667823873,"219":0.04017493288813966,"220":0.016081868521531647,"221":-0.03086300461835269,"222":0.030461059255536323,"223":-0.046727407503311114,"224":0.05698621818053215,"225":-0.01339057385674081,"226":0.09852591091012758,"227":-0.1297864585924965,"228":-0.04708698946172586,"229":0.002010407526655796,"230":-0.051684245041434373,"231":-0.04768363214736239,"232":-0.05046774125157451,"233":-0.033372876061985635,"234":-0.0524195925167345,"235":0.009959637211893068,"236":0.044567096640185,"237":0.0070162732451609765,"238":0.0641157983349539,"239":0.12126185016650087,"240":0.09146379848044423,"241":0.02962528620884732,"242":0.010095767657649787,"243":0.020126124335964415,"244":-0.1044879505088868,"245":0.01418801894216094,"246":-0.009014702483275181,"247":-0.031063148407368915,"248":0.11756533992291603,"249":0.17028363748490635,"250":0.008063061153356702,"251":-0.05858843711616706,"252":-0.1343053579296643,"253":-0.023789237794882376,"254":-0.12898767840736705,"255":-0.03490246712759596,"256":0.04488531815201263,"257":-0.08898810260678544,"258":-0.03518779442736245,"259":0.05437553944643542,"260":0.11478709624003332,"261":-0.06703619113814388,"262":-0.06600643048628575,"263":0.0011823014807100043,"264":0.04363853187566215,"265":-0.04484281346073554,"266":-0.09139137695543537,"267":-0.0434579189652252,"268":-0.019810508481769146,"269":-0.031177586699697783,"270":0.0010002424127724828,"271":-0.032426440641721066,"272":0.08191103105591085,"273":-0.011229740514896603,"274":0.038941399896763575,"275":-0.01630898102385141,"276":-0.006724966550636218,"277":0.03229547501586763,"278":0.03028642683389943,"279":-0.07119878212833396,"280":0.012714603400449123,"281":0.06849978898534928,"282":-0.1639466764704448,"283":0.012037754784617017,"284":-0.02721688455409955,"285":0.0076930452568030215,"286":-0.10889099293970948,"287":-0.05924646980715508,"288":-0.04029310711351879,"289":0.05778621147935151,"290":-0.09824841850712722,"291":0.06354480121111858,"292":0.007760829718955865,"293":0.08912458149926543,"294":-0.07797961237825066,"295":-0.010101719986235706,"296":-0.05165673420037192,"297":-0.027290344057938048,"298":0.03070615841635584,"299":-0.01603112955164104,"300":-0.030966748942632603,"301":-0.054646599410181414,"302":0.012660154688133623,"303":0.014915023866620906,"304":0.12196200226515738,"305":-0.09783664158703481,"306":0.022628360587414204,"307":0.07539672171857037,"308":0.07262765246604967,"309":-0.015633774653079233,"310":-0.022374778552047597,"311":-0.03249653667872414,"312":-0.04820146986135332,"313":-0.007910950446423337,"314":-0.01524923807644076}},{"sx":1,"sy":1,"depth":315,"w":{"0":0.044321142336763375,"1":0.010066036519483425,"2":0.044397209201295765,"3":0.08244065139622044,"4":0.06872389483083825,"5":-0.005993312258648171,"6":-0.0014539591745743477,"7":0.07286193403458609,"8":0.03773080657646016,"9":0.08373767848731821,"10":0.05731020733322166,"11":0.028043132833859733,"12":-0.04483941011856359,"13":0.007334570124247591,"14":0.001237478688893946,"15":0.008489626238737648,"16":0.05009356662395171,"17":-0.1398076890175131,"18":-0.0514466970609303,"19":0.021909017015533057,"20":0.005487624483294679,"21":0.02403791887709911,"22":-0.06976216046469737,"23":-0.022358499241860265,"24":0.032429292397294085,"25":0.0056547973204048715,"26":0.05025225999017594,"27":-0.00992427508272046,"28":-0.06432997112491437,"29":-0.0761573520888944,"30":0.11580107612382301,"31":0.03219149504163634,"32":0.019453795502246487,"33":-0.0007153226042889901,"34":-0.02003621680352169,"35":-0.03082120770869867,"36":0.03664117343027559,"37":0.06649663839678152,"38":-0.0305228084132396,"39":0.02545495702526953,"40":0.06496339569364346,"41":-0.0444545116581705,"42":0.02363617540471001,"43":-0.014767791679319534,"44":-0.039403524781981766,"45":0.024864654855098523,"46":-0.008266312163179098,"47":0.00658670978534202,"48":0.06139876605915159,"49":-0.07830628982792527,"50":0.033655851153917685,"51":0.015503497789146463,"52":-0.010174481316617072,"53":-0.06664868431616391,"54":-0.03941994513934212,"55":-0.01968073288444769,"56":-0.028414652453828494,"57":0.05743451436715992,"58":0.030264647602737463,"59":-0.06904281979283224,"60":-0.12093655430863849,"61":-0.13229589482922732,"62":-0.06930349852672113,"63":-0.05628008538394324,"64":-0.024120139452232386,"65":-0.0958836398949143,"66":0.00006537960603230919,"67":-0.003001199579717028,"68":-0.029111373128115337,"69":-0.001712369899472768,"70":0.07710667895094499,"71":-0.009755812558523801,"72":0.017688335810979477,"73":-0.0493409151645362,"74":0.04731575282107974,"75":0.004777233426247651,"76":-0.059990969255366976,"77":0.07131013844625582,"78":-0.08964637568090066,"79":-0.02583893887738742,"80":-0.00392332267185246,"81":0.03226384743004799,"82":-0.024998553850971515,"83":-0.012279786607210028,"84":0.06154714040568724,"85":-0.009868786385014114,"86":-0.0013840295220927696,"87":0.01806310923588768,"88":-0.009409049879705846,"89":-0.10969436734985438,"90":-0.19133316418218796,"91":-0.02708805389059458,"92":-0.06335764334154351,"93":0.05051722282146394,"94":0.040567579128267285,"95":-0.022429741014287935,"96":0.0022197378942072966,"97":0.05514620479499326,"98":-0.0694149369430599,"99":-0.004804144846320563,"100":-0.06641193374725177,"101":-0.029320616220968303,"102":-0.036917842395773254,"103":-0.018313787676754237,"104":-0.022258863538713,"105":0.053912308778853626,"106":-0.014977925949221569,"107":-0.032871524506963394,"108":-0.12255853344397422,"109":0.023343576035097815,"110":-0.028360860039528073,"111":-0.055438242679490345,"112":0.09182002643065593,"113":0.07295913036903648,"114":-0.037515016105417576,"115":-0.04268291140291265,"116":0.021907462054489936,"117":-0.042334229731451935,"118":0.0509135600772163,"119":-0.014076875294247941,"120":0.05803580554704263,"121":-0.016982916688375208,"122":0.011355900366903834,"123":0.0521742046222748,"124":-0.005871265682488369,"125":0.05683767030695718,"126":0.05190728914737653,"127":0.0241601435298564,"128":-0.033610600417694564,"129":0.0690176418941433,"130":-0.017486215099928877,"131":-0.014017715536486234,"132":-0.022275419989184628,"133":-0.024769087203647424,"134":-0.06487890292633877,"135":-0.01730312693341852,"136":-0.035222961428229,"137":0.1292439115616927,"138":-0.014931862159661757,"139":0.009170625849781774,"140":-0.036720110781971724,"141":0.052087060290150165,"142":-0.042124450108849354,"143":-0.06134658064542175,"144":0.058516762325731476,"145":0.03544437213297023,"146":0.05029798876093538,"147":0.04381154724195947,"148":-0.08765136192159285,"149":-0.0217174056345104,"150":-0.041242950302121904,"151":-0.11922379335176002,"152":-0.03004404820383434,"153":0.0013944126208762474,"154":-0.022048010712941553,"155":-0.002084819054406724,"156":0.06384502797056249,"157":-0.12519704532609957,"158":-0.001991893376179288,"159":0.047231351569053684,"160":-0.021777919703341395,"161":0.05362184711066555,"162":0.058453571038149195,"163":0.01692819918547913,"164":-0.014537070585482757,"165":0.05249749673799003,"166":-0.05847793419582378,"167":0.022888186847468493,"168":0.050051057147942515,"169":-0.09143316137670808,"170":-0.04252904459274349,"171":-0.030035007300384338,"172":-0.06759299679072744,"173":0.026601510248119034,"174":-0.027348265990081104,"175":0.05969088446628017,"176":-0.05731062701842013,"177":-0.03180832106860492,"178":0.033695055873306484,"179":-0.007925570846464178,"180":-0.036888594504201316,"181":0.04054770134857805,"182":-0.05539869986326429,"183":-0.01338156411457518,"184":0.056301044722266116,"185":0.09256303020930721,"186":0.025549354609762282,"187":0.06182796924044297,"188":-0.0010465552931702077,"189":-0.00382291567007561,"190":-0.012561915391513053,"191":0.05964522581053665,"192":0.03644232738640934,"193":-0.05244388672441579,"194":-0.1000861747981681,"195":0.03527996235709478,"196":0.06792250967873047,"197":-0.02975786254815381,"198":-0.06397186928602787,"199":0.08090077119153077,"200":0.07303105730390853,"201":-0.03238562783705483,"202":0.02535130148270824,"203":0.020023324751767012,"204":-0.013451092909598741,"205":0.01309007137414867,"206":-0.03373551171410851,"207":0.06584757850584122,"208":-0.04827136767237172,"209":-0.008794107192619678,"210":-0.007731676748081456,"211":0.009608818110757271,"212":-0.08433528395658141,"213":-0.0015168400810601597,"214":0.011344962695733098,"215":0.014597628700411223,"216":-0.04421102007363705,"217":-0.057207206101928025,"218":-0.04944821610415807,"219":-0.020132765851448665,"220":-0.022686335640147246,"221":0.01887554595287178,"222":-0.041638100235664,"223":-0.00426579273651617,"224":-0.0031147615003901227,"225":0.04880363066630492,"226":-0.06819944269332932,"227":0.1291627819998389,"228":0.14478249003056048,"229":-0.07010791318715695,"230":-0.035604324001333676,"231":-0.015316551948152877,"232":-0.03234345186943655,"233":-0.031561154236001754,"234":-0.04382042453514222,"235":-0.038058235231226936,"236":0.14005848758734127,"237":0.03442035577165207,"238":0.03392325790098708,"239":-0.0276499130144276,"240":0.017141937315915626,"241":-0.06436876127018684,"242":0.020225995267517127,"243":0.03975837806665961,"244":0.056431758329504075,"245":0.0351701050554202,"246":0.01995586373473786,"247":0.043198135950167714,"248":-0.06506936426503232,"249":0.06566401188421046,"250":-0.10290479906146623,"251":-0.028034773657051627,"252":-0.1554631701605188,"253":0.015111715748218027,"254":0.14919036674667152,"255":0.09182360015151553,"256":0.009707408960023204,"257":0.0043227051628722995,"258":0.08396948744364195,"259":0.02961237998919063,"260":-0.015527563936514315,"261":-0.028058414627096896,"262":-0.14967547666899716,"263":0.06056240112737223,"264":0.06866779782424896,"265":-0.03155490279326788,"266":-0.03908906811751045,"267":0.020598790455932197,"268":-0.036145547968465586,"269":-0.015092518340068806,"270":-0.0007805441849873911,"271":0.011194078180390366,"272":-0.055864585842921165,"273":0.04686523156955868,"274":-0.005930901709370342,"275":-0.02290073733396036,"276":0.011839417093102735,"277":-0.04146567933566766,"278":-0.055733632214809016,"279":0.009085019579465533,"280":-0.05814737377005657,"281":-0.0732420870502437,"282":0.040164595872680835,"283":0.0440155035707171,"284":0.11389262785400747,"285":0.13021179372788566,"286":-0.022327140372506007,"287":0.004516203820693374,"288":-0.022983078514276334,"289":-0.01280065033702234,"290":0.08694272012847007,"291":0.03606143490199727,"292":0.053720613977816016,"293":0.047724371947679256,"294":-0.06024299396185697,"295":0.007223363855810695,"296":0.0033609126308860432,"297":-0.03757963611315656,"298":-0.006052619550040024,"299":-0.003145753370664021,"300":0.017489003550405273,"301":-0.048868325348433515,"302":-0.018870997455716302,"303":0.027814344805066244,"304":0.05046055569008269,"305":-0.029029314889327144,"306":-0.030604583543478957,"307":-0.051864847331656624,"308":-0.1019304677575685,"309":-0.09283888978054582,"310":-0.008763814073781318,"311":0.03291425421784489,"312":0.05456524722204929,"313":-0.04911218304377462,"314":-0.01970944400813849}},{"sx":1,"sy":1,"depth":315,"w":{"0":0.009176083014931486,"1":-0.013537683879821773,"2":0.05605940519304419,"3":-0.01751774513325404,"4":0.01821540536854417,"5":0.06905296330377365,"6":0.025378929675278925,"7":0.06003086373225761,"8":0.02734311521531833,"9":-0.05484620280615032,"10":-0.013230975464683369,"11":-0.042803450553764444,"12":-0.04883165327763538,"13":0.013519257782530159,"14":-0.07400039860444418,"15":0.04214607901696899,"16":-0.03468847610725848,"17":-0.05338059969041744,"18":0.024760497179615586,"19":-0.0008250523958609515,"20":0.01942188028644997,"21":-0.024478801487387354,"22":0.015455074482864612,"23":-0.08105620175403934,"24":0.016179399056229386,"25":-0.04518916626811633,"26":-0.025037336640383802,"27":-0.027574541274368314,"28":-0.052575161000879014,"29":-0.08247295800923607,"30":-0.05035676433817295,"31":0.045747641160898675,"32":0.04635975750526453,"33":0.0312637162374025,"34":-0.021480749187227234,"35":0.03959402323227745,"36":-0.08794676974946058,"37":0.004289283662186759,"38":-0.04890546262578392,"39":-0.051926934020609467,"40":0.05220909324449566,"41":-0.031576466984494275,"42":0.1012248427429169,"43":-0.05081386261498389,"44":0.051499433812646135,"45":0.06322191483164223,"46":0.007308199731962337,"47":0.051160073512467104,"48":0.00711711832908806,"49":0.15315870297929363,"50":-0.10537809541605697,"51":-0.03016299948001279,"52":0.017955023271755535,"53":-0.008342302526246828,"54":0.08521055860311472,"55":0.008993928465295273,"56":-0.03719895323620135,"57":0.025967165969600785,"58":-0.10428317537972091,"59":-0.03981416290009749,"60":0.029292356555495273,"61":-0.034071921409153806,"62":-0.21846168666361598,"63":-0.059443228216556336,"64":-0.03025604617302387,"65":0.04763149258439223,"66":-0.07541129616687875,"67":-0.03422761849409359,"68":0.03299761669709676,"69":-0.044565171695609966,"70":0.014420971630494455,"71":0.0237022290287276,"72":-0.13824952887216616,"73":0.022005841035080992,"74":0.01198451917076732,"75":0.03354499035369311,"76":-0.03309064983112402,"77":-0.04809555357986866,"78":0.018050066786906634,"79":-0.03325162562155642,"80":-0.03834060954046518,"81":-0.0880771524199348,"82":-0.03475448836382541,"83":-0.045122804784877804,"84":0.014393062479713831,"85":0.06732222493285507,"86":-0.047334377281979485,"87":-0.07736531473981936,"88":0.015297324560209756,"89":-0.05403282976311687,"90":-0.03079269182402001,"91":0.020959839992492096,"92":0.015946783106288203,"93":-0.006683498604278184,"94":-0.02883549335640565,"95":-0.06978110909828497,"96":-0.13823918088357445,"97":0.0183772061179808,"98":0.05742987375857855,"99":0.0909810048284442,"100":0.058634631198158205,"101":0.00777402379659454,"102":-0.055795347773448745,"103":-0.08408031626795544,"104":-0.11613906818948376,"105":-0.064198083417435,"106":0.0688443582153173,"107":0.05931174389289301,"108":0.043386474144439156,"109":0.019619520199369318,"110":-0.08461319805782666,"111":-0.12237055760331488,"112":-0.012307313499938702,"113":-0.005926254882877451,"114":0.006796620326332515,"115":0.02654132835803425,"116":-0.018920909189158452,"117":0.06796740270607694,"118":-0.049778351612844385,"119":0.02226515286890066,"120":-0.05400140299974602,"121":-0.007318072257578456,"122":-0.010448974609041532,"123":0.02963312099129405,"124":-0.08986472730585715,"125":-0.010148994901143129,"126":0.08541771369717895,"127":-0.006373858500488642,"128":0.020193980146127843,"129":0.01748320903550087,"130":-0.0819061385771259,"131":-0.013986418761579756,"132":-0.07267467332496816,"133":0.013199314477144328,"134":0.009563866518842338,"135":-0.010437975637027875,"136":-0.002294133199347225,"137":-0.04249896366091509,"138":0.09130188897916475,"139":0.03783385650313483,"140":0.026561236770879595,"141":-0.001294406828907972,"142":0.04383223454618611,"143":0.019401189787512402,"144":0.0032189833048920403,"145":0.030607093202966427,"146":-0.05038022940532966,"147":0.05358084336605462,"148":-0.035740465123602606,"149":-0.071930326702465,"150":-0.04517193210239086,"151":-0.03509792993876266,"152":-0.014435097276471522,"153":-0.025728730524816338,"154":-0.02070817399375639,"155":-0.005139445392769179,"156":0.11890169716690845,"157":0.058213956295975054,"158":0.033920243197412964,"159":-0.04076370378520506,"160":-0.10608008511710432,"161":-0.06557578290609939,"162":-0.040834472924530726,"163":0.02523153551966881,"164":-0.021616751586217828,"165":-0.07338989979055027,"166":0.011690829569418939,"167":-0.05884434000842332,"168":-0.08191152952998706,"169":-0.013074908384901007,"170":0.07250221678257732,"171":0.038551464193221786,"172":-0.033421025039585765,"173":0.03352231486782952,"174":-0.10581432351197345,"175":-0.04265472194241875,"176":-0.015298715451857637,"177":0.029444048013452257,"178":-0.07759064373420613,"179":-0.11605015116281976,"180":-0.05992395047721851,"181":-0.06361489595133625,"182":0.05280501902126665,"183":-0.09465657076914055,"184":0.08228065855132778,"185":-0.05650115697598749,"186":0.09935019405203156,"187":0.08289548227372871,"188":-0.04704162884440521,"189":0.14092918171846552,"190":0.016030814989983096,"191":-0.018896718026006728,"192":-0.008795026243499976,"193":-0.012542230213930678,"194":-0.01246212530300226,"195":-0.10958228881693001,"196":0.03458333913967608,"197":-0.005497068487162335,"198":0.06431305068322131,"199":-0.06171270486396064,"200":-0.03683343616882037,"201":-0.07658248490584325,"202":0.049646053244366654,"203":-0.02770135090546055,"204":0.0787447545769143,"205":-0.0030865358492485713,"206":0.016801048320962242,"207":-0.05918950406754172,"208":0.021020850260119652,"209":-0.026775453407011988,"210":0.0010062207695031877,"211":-0.04494145499726448,"212":-0.01962702965832992,"213":-0.03475091932901965,"214":0.0820963227965709,"215":0.04026763441318675,"216":0.0844497985860184,"217":-0.004349921396134373,"218":-0.06704979964783975,"219":0.015138138450056293,"220":-0.03975095826417597,"221":0.04347799957138035,"222":-0.023235083271629483,"223":0.0404678850269691,"224":-0.003485435893371603,"225":-0.006497196050666612,"226":0.10560286595407398,"227":0.004870913665054467,"228":0.15511136300648437,"229":0.05171758537671213,"230":-0.1156112756262653,"231":0.02912127900139353,"232":-0.09282544028053866,"233":-0.04411524291622539,"234":0.017744808645343585,"235":0.0478061815507057,"236":0.049397227107467516,"237":0.04761570377795915,"238":0.0206376925287325,"239":-0.013813781084853049,"240":0.05587652586691607,"241":-0.04209423221033228,"242":0.05784032877223705,"243":0.01856272303019629,"244":0.006040652006243057,"245":0.027329895788955033,"246":-0.044014583618139876,"247":0.00415205499142529,"248":-0.027064308347311515,"249":-0.04247508691384593,"250":0.03295654404931647,"251":-0.013210396950768947,"252":-0.03773236817077285,"253":-0.07357981008346305,"254":0.08069119060563831,"255":0.015339185962808774,"256":-0.04312613369330606,"257":-0.0031932665767972976,"258":0.0029945003598943133,"259":0.08225237422789183,"260":-0.021173802516974344,"261":-0.013965429262837718,"262":-0.08397215945186566,"263":0.019575708909701825,"264":0.01546485254271476,"265":-0.044377713713696414,"266":0.006371691718842,"267":0.0524659643482941,"268":0.012790207209056197,"269":-0.003247131452514293,"270":0.052803889223174326,"271":0.04017385585700728,"272":0.0561749390138965,"273":0.04326917362536701,"274":0.09113748483984137,"275":0.08940672046023308,"276":0.006817755650223122,"277":0.048222610226451586,"278":-0.08226192604461453,"279":0.03854572993248591,"280":0.021657816533555172,"281":-0.00974441326710406,"282":0.0011220475049595671,"283":-0.09062609970063225,"284":0.006938961343185821,"285":0.0578787686948085,"286":0.021390193184779308,"287":0.0700918959635918,"288":-0.013950267796182528,"289":-0.029630527823379705,"290":0.07281692482805323,"291":0.09516203865180253,"292":-0.032525765830195306,"293":-0.011474030208872173,"294":-0.06807605273765485,"295":-0.0417666210973822,"296":0.029281840287667504,"297":0.07405243831741558,"298":-0.06529077474582949,"299":0.014436622040895235,"300":0.031187192289000246,"301":0.08043599244501311,"302":-0.07579189534693388,"303":0.07428929672640704,"304":0.013160395256203926,"305":0.004315699022379689,"306":-0.004188255284062381,"307":-0.00840944570793261,"308":0.0357372921578811,"309":0.006923236239315841,"310":0.0042673961874947425,"311":-0.0005200693162878643,"312":0.0068659243908332675,"313":-0.04645555076215577,"314":-0.0904523796780757}},{"sx":1,"sy":1,"depth":315,"w":{"0":-0.03770764405528526,"1":0.0261696884204668,"2":-0.04346626842692418,"3":-0.11581909852552923,"4":0.06527957956290034,"5":0.03546218970619438,"6":0.03191972721639943,"7":0.0681379433494253,"8":0.002414634049404711,"9":0.014043058650328158,"10":0.036007303152973125,"11":-0.005824958605301886,"12":-0.03339247139326522,"13":-0.03635936291980029,"14":-0.05621419230648385,"15":0.018900805207910494,"16":-0.013598171664125826,"17":-0.014760666226659655,"18":-0.08946843409656631,"19":-0.005498684229920782,"20":0.04672600070344414,"21":0.04510777066272616,"22":0.04027101409221837,"23":-0.004849435919961169,"24":0.0445550138165483,"25":-0.07857693207631712,"26":0.03520637509181537,"27":-0.02890781884563044,"28":-0.0004967308295688684,"29":0.02336268452803134,"30":0.08963758474674884,"31":0.032452723748398776,"32":0.08325989190094897,"33":-0.01288089454280264,"34":-0.002742062798356948,"35":0.011205572666147608,"36":0.04951775625513114,"37":-0.03884997469131683,"38":0.03019739168224657,"39":0.0475286775476271,"40":0.05215940223570688,"41":-0.002118191601725678,"42":0.003324200570368071,"43":0.007569520918502754,"44":0.06220577591513036,"45":0.047997530206182734,"46":-0.01497982118613981,"47":-0.03889738274668757,"48":0.047615109356831595,"49":0.030348177169590797,"50":0.037470784852717515,"51":0.05569054126528544,"52":-0.0506748588726981,"53":-0.05710320397796946,"54":-0.001740116615011493,"55":0.04531795129285175,"56":0.01918930557368898,"57":-0.08046981727237437,"58":0.05893153753715683,"59":0.010158104170368987,"60":-0.029122413318947393,"61":0.04426930515479262,"62":-0.004045341191751456,"63":0.09839068260106343,"64":0.013616071597575365,"65":-0.06384332093965861,"66":0.008851509866435613,"67":-0.005111360030561469,"68":0.0685358429767998,"69":0.017224766431659693,"70":0.10441062268111602,"71":-0.042889291909893296,"72":-0.029816865322653284,"73":-0.01287256389325747,"74":0.021780466052556437,"75":0.03432906514902117,"76":0.011356365074724659,"77":0.00488485180541202,"78":0.10324511203764046,"79":0.05749968035764573,"80":-0.06660674511323342,"81":-0.020418126760002642,"82":0.02556913190091488,"83":0.01274741014518123,"84":0.08080263909722721,"85":-0.02163724909262951,"86":0.05689755517089912,"87":0.07191811418427979,"88":-0.025069043998354874,"89":0.013195316682377178,"90":0.0792543032502992,"91":-0.08379603002346432,"92":-0.025393312622633547,"93":0.09786146288379956,"94":0.020013905311024493,"95":-0.05691083317455362,"96":-0.000550743938331151,"97":0.07500454790648396,"98":0.04038156979840152,"99":0.04401146617325137,"100":-0.07991507777808872,"101":-0.05627325249385354,"102":-0.05919523398842098,"103":0.0357956682314354,"104":-0.09543778727981687,"105":0.011034132023433707,"106":0.05193760266616352,"107":-0.005928888202129799,"108":-0.12400630291892137,"109":-0.022376341953057616,"110":0.042095746095616914,"111":-0.09339514031349518,"112":0.035468051073338364,"113":0.04825192192551195,"114":-0.01094006468146616,"115":0.02583029639423354,"116":-0.15203903378305642,"117":-0.05706493283760846,"118":0.0610956415989719,"119":0.005826108521109764,"120":-0.04707048533207389,"121":0.064839837320391,"122":-0.0008998467417085778,"123":-0.0472432229859389,"124":0.09195914618034084,"125":-0.005506029647289048,"126":-0.028760558277063468,"127":-0.04543275729619625,"128":0.014655872726571722,"129":-0.07118057942039728,"130":-0.02530522216607177,"131":-0.02885455751407517,"132":-0.014218174449428805,"133":-0.035651172739970344,"134":-0.13258507454354473,"135":0.16947285128719825,"136":0.028166695224884696,"137":0.051506119641408846,"138":-0.05171795817702955,"139":-0.03966522488541127,"140":-0.0008128930372745678,"141":-0.025063821110114504,"142":-0.005600754662481705,"143":-0.002769932739379605,"144":0.0634519405745752,"145":-0.037861953519416625,"146":0.08467114406192114,"147":-0.036209262682781525,"148":0.09802630425701069,"149":-0.03223985181090489,"150":0.010965114113915,"151":-0.0036751616554565793,"152":-0.06133379489844852,"153":-0.04089329363471133,"154":-0.027269086311908195,"155":-0.008423833336117058,"156":0.02378023949990764,"157":0.021528084096107798,"158":0.023575561918921795,"159":-0.032728611365825645,"160":0.009052651878456523,"161":0.05839981143953223,"162":0.10678347181934364,"163":0.05093390098390189,"164":0.0088062372309119,"165":0.03461536389749383,"166":0.014984488537455744,"167":-0.03057432096957286,"168":-0.04934914897108504,"169":0.07583819791190587,"170":-0.047021558607131995,"171":-0.03814321166206279,"172":-0.011058161179627685,"173":0.07922903237276255,"174":0.06370094293524853,"175":-0.0031124044610618016,"176":0.027972281136076953,"177":-0.02738677726496054,"178":0.01045161548025587,"179":-0.04622473388834856,"180":0.04646499487709176,"181":-0.0028329957474337937,"182":-0.08392450023621745,"183":-0.0033562967868794834,"184":-0.03058808142821586,"185":-0.03354550369067771,"186":-0.06696505823689303,"187":-0.033543170106513004,"188":0.0432419147654358,"189":0.04656596731064073,"190":-0.14721265738631215,"191":0.03138585699660791,"192":0.014034168281653724,"193":-0.052624226786576196,"194":0.042453404187020205,"195":0.02006240798575833,"196":-0.05687100611313873,"197":0.06981406305189716,"198":0.054753672440856445,"199":0.038423229000938516,"200":-0.076441543456871,"201":0.07302380148268771,"202":-0.02915804619590228,"203":-0.03266735442954377,"204":0.06273968772667639,"205":0.07128286708934692,"206":-0.006707046267639289,"207":-0.06256260896729755,"208":0.03047768694328686,"209":-0.009012379694290234,"210":0.0391178233670685,"211":-0.06343553142435673,"212":-0.08275762250850505,"213":0.012685788371850516,"214":0.007308543151583948,"215":-0.02594878790350852,"216":0.05103446606045994,"217":-0.0186678046138496,"218":0.04978838272244944,"219":-0.006713120672427301,"220":-0.11098959224068318,"221":0.019217768136943952,"222":0.006087750350543085,"223":0.05546493145819364,"224":0.007628025948171367,"225":-0.06841050821978513,"226":-0.0027346191753915864,"227":0.019365055301238315,"228":-0.012743444555370347,"229":-0.04713921873482983,"230":0.022916582368768174,"231":-0.03063721559103139,"232":-0.004441329375415208,"233":-0.02277717728326633,"234":-0.04623786608358245,"235":0.04283471298114345,"236":-0.04815108113961926,"237":0.009558458168483067,"238":-0.06331498645244472,"239":-0.07815314798383764,"240":0.04449819681079814,"241":-0.1415516358185173,"242":0.006976235754908815,"243":-0.0801728937436481,"244":0.07820207213599673,"245":0.08245015826534036,"246":0.07829369044112641,"247":-0.03237458936093498,"248":-0.004868844460712829,"249":-0.20545986046702108,"250":-0.02935444821663307,"251":-0.050393253117117946,"252":-0.009855431036954928,"253":-0.0029592241790443443,"254":0.020434985809423982,"255":0.03574713787726649,"256":-0.03809114174085952,"257":0.04903512687014717,"258":0.01020675457529527,"259":-0.03482805340745649,"260":0.03539724646988557,"261":0.08284832172317237,"262":-0.04774732655607134,"263":-0.039350299914446656,"264":0.019256277461291882,"265":0.02038723744823455,"266":-0.07805522800256166,"267":-0.06585340527169725,"268":0.01980532732959969,"269":0.015766233963997723,"270":-0.014070227467288391,"271":0.03072879955095488,"272":0.06155174088125989,"273":-0.023823342838052985,"274":0.027343520129148223,"275":0.01678172402307612,"276":0.044457963135845074,"277":-0.013656412892775608,"278":0.10294233506158881,"279":0.023988684130846268,"280":0.014533828641840047,"281":-0.027117016251222766,"282":-0.04702677433566386,"283":-0.04008358963078304,"284":-0.07112008405194968,"285":0.023833306210340504,"286":0.009220109245405256,"287":-0.015978420268051165,"288":-0.09826169573183477,"289":-0.04771058186132156,"290":0.037011240556647985,"291":0.04128087209351889,"292":0.06276914472400605,"293":0.0638966112256508,"294":-0.06948502176374959,"295":-0.047183468870321245,"296":0.08085907586307765,"297":0.06912785215172473,"298":-0.10383631693142159,"299":0.021358109539783995,"300":0.05036379941060041,"301":-0.07365236131359644,"302":-0.01821305375760691,"303":-0.046712919549567675,"304":-0.12171976039099329,"305":0.06205136229853811,"306":0.046235189025880016,"307":0.0037882184243122324,"308":-0.06423125105267755,"309":-0.11904400906251103,"310":0.03634571444406792,"311":-0.01852586171644669,"312":0.030453652895511506,"313":-0.018086397358936933,"314":-0.019921227736452312}}],"biases":{"sx":1,"sy":1,"depth":6,"w":{"0":0.09836693976192976,"1":0.10087786397981072,"2":0.09905459609670238,"3":0.09883923216372456,"4":0.09958501813787343,"5":0.0988736475161738}}},{"out_depth":6,"out_sx":1,"out_sy":1,"layer_type":"relu"},{"out_depth":9,"out_sx":1,"out_sy":1,"layer_type":"fc","num_inputs":6,"l1_decay_mul":0,"l2_decay_mul":1,"filters":[{"sx":1,"sy":1,"depth":6,"w":{"0":-0.3188183049736801,"1":-0.33342219986045013,"2":0.03393857130012848,"3":-0.06030818893262172,"4":-0.40824179682785156,"5":0.10109646996667322}},{"sx":1,"sy":1,"depth":6,"w":{"0":0.0692791060492131,"1":-0.7311184946953743,"2":0.7964406949522426,"3":0.1763853366885953,"4":0.40480005550842446,"5":-0.17414398852606597}},{"sx":1,"sy":1,"depth":6,"w":{"0":0.8934520215641739,"1":0.9063641153330367,"2":-0.159959850325641,"3":-0.24611785023645305,"4":-0.26248421990981585,"5":-0.13261296015585997}},{"sx":1,"sy":1,"depth":6,"w":{"0":-0.15592964198801923,"1":0.20026144034101012,"2":-0.1651589443640965,"3":-0.2440817084539082,"4":-0.4202465238706829,"5":-0.28008266815242483}},{"sx":1,"sy":1,"depth":6,"w":{"0":-0.05831710073415018,"1":-0.059340748238974006,"2":0.010110955966482066,"3":-0.4803255945789843,"4":0.2324924168679542,"5":-0.3666190729645898}},{"sx":1,"sy":1,"depth":6,"w":{"0":-0.2649190797074496,"1":-0.08121889443029097,"2":-0.1259423745531946,"3":-0.09802299421015549,"4":0.6178169971508394,"5":-0.7544384556429229}},{"sx":1,"sy":1,"depth":6,"w":{"0":-0.475784308835923,"1":-0.1304069513376468,"2":0.20179164555066584,"3":-0.794134037235778,"4":-0.5450445526152947,"5":0.5482732915253207}},{"sx":1,"sy":1,"depth":6,"w":{"0":-0.1547744099455066,"1":-0.3895356006316749,"2":-0.4430555758310922,"3":0.004486919163701614,"4":-0.18458306243416872,"5":0.10013471529255172}},{"sx":1,"sy":1,"depth":6,"w":{"0":-0.5630304268662898,"1":0.225196971037199,"2":0.24082896410283994,"3":0.7840351831649575,"4":-0.14368323704979394,"5":0.17242758452659854}}],"biases":{"sx":1,"sy":1,"depth":9,"w":{"0":0.07152272629361198,"1":0.0995743198019193,"2":0.11467438484617992,"3":0.09671522237208861,"4":0.07778909045685878,"5":0.08157413073181254,"6":0.10020526592350862,"7":0.08001647599347643,"8":0.11186788600286704}}},{"out_depth":9,"out_sx":1,"out_sy":1,"layer_type":"relu"},{"out_depth":11,"out_sx":1,"out_sy":1,"layer_type":"fc","num_inputs":9,"l1_decay_mul":0,"l2_decay_mul":1,"filters":[{"sx":1,"sy":1,"depth":9,"w":{"0":-0.4960885736979091,"1":-0.16746166020141848,"2":0.1657417291393343,"3":-0.3584831482429855,"4":0.23437028148340036,"5":0.2594762621900662,"6":0.1821092854749035,"7":-0.1423983654907107,"8":-0.42475041206513797}},{"sx":1,"sy":1,"depth":9,"w":{"0":0.44398304076728085,"1":0.134476606630103,"2":0.300218962298885,"3":0.15392672106731575,"4":0.6474229341892332,"5":-0.015600686075396487,"6":-0.024928687591532453,"7":0.06366995305674233,"8":0.15965731082650622}},{"sx":1,"sy":1,"depth":9,"w":{"0":-0.2722679823536376,"1":0.2755372354907808,"2":-0.11819473372316334,"3":-0.07862576476285492,"4":-0.12039488265347485,"5":0.20316197966153854,"6":-0.39768753951764757,"7":-0.1411833146087535,"8":-0.47061187916832065}},{"sx":1,"sy":1,"depth":9,"w":{"0":-0.13120436507107833,"1":-0.08364960247828872,"2":0.30924302206079984,"3":-0.034040012636615394,"4":-0.03784167810820088,"5":0.4129409907445698,"6":-0.151781714909023,"7":-0.46020447039831675,"8":-0.3666401175178508}},{"sx":1,"sy":1,"depth":9,"w":{"0":0.3666774621642741,"1":0.03356576373673489,"2":-0.20970921939104487,"3":0.27559351193209747,"4":0.336890308573656,"5":0.14645236761773164,"6":-0.2297251864907154,"7":0.040346430603434416,"8":0.29439736728865423}},{"sx":1,"sy":1,"depth":9,"w":{"0":0.262825090599757,"1":0.09660147317584972,"2":0.1735903524091792,"3":-0.19891901133448378,"4":0.19125439048620427,"5":0.2772221540100314,"6":0.052002228362528165,"7":-0.04777159254891575,"8":-0.5010842845807598}},{"sx":1,"sy":1,"depth":9,"w":{"0":-0.19726374770282876,"1":0.24688284629461624,"2":0.9592380657636639,"3":0.05747289948613908,"4":-0.23593284642240378,"5":0.2917903872824127,"6":-0.11111052070667665,"7":-0.7637260279251272,"8":-0.03386103547403136}},{"sx":1,"sy":1,"depth":9,"w":{"0":0.19680946891208226,"1":0.30675111475386585,"2":-0.12305262678557402,"3":-0.28406337136297105,"4":-0.25717126326269335,"5":0.3147784706010727,"6":-0.062068736733660236,"7":0.22537104307206945,"8":-0.29936519809212764}},{"sx":1,"sy":1,"depth":9,"w":{"0":-0.5939919871366188,"1":0.2559509164772043,"2":-0.013297123777559398,"3":0.23165326075207224,"4":-0.6231778874626319,"5":-0.24023899184582878,"6":0.14778972806302146,"7":-0.13496588743364912,"8":-0.6493510863387509}},{"sx":1,"sy":1,"depth":9,"w":{"0":-0.07087444361856733,"1":-0.35405573543350605,"2":-0.05894619407806489,"3":0.33727980817904524,"4":-0.6818335568446209,"5":0.028124462608923533,"6":0.11262350811689563,"7":0.2581370622322632,"8":-0.25261950273659856}},{"sx":1,"sy":1,"depth":9,"w":{"0":-0.07659004626769966,"1":0.14615217991553664,"2":0.430845917582101,"3":0.021814983017683313,"4":0.26428909108832466,"5":-0.4822344175703494,"6":0.000011396614150150248,"7":-0.4578506194400685,"8":-0.054839251290363954}}],"biases":{"sx":1,"sy":1,"depth":11,"w":{"0":0.03180216078105954,"1":0.11070604214564526,"2":0.09995154810901953,"3":0.08405902685890419,"4":-0.046601985857933834,"5":-0.00010289951201646459,"6":0.19588550370826072,"7":0.06384257494745889,"8":0.10315046323552518,"9":0.08610914775107693,"10":0.05261764604036885}}},{"out_depth":11,"out_sx":1,"out_sy":1,"layer_type":"relu"},{"out_depth":5,"out_sx":1,"out_sy":1,"layer_type":"fc","num_inputs":11,"l1_decay_mul":0,"l2_decay_mul":1,"filters":[{"sx":1,"sy":1,"depth":11,"w":{"0":-0.1914707368923828,"1":0.014938764057550282,"2":-0.2912532868403873,"3":-0.2144609178115303,"4":-0.7775257614374789,"5":-0.11916463404261028,"6":0.4845625445795187,"7":-0.4139567227002665,"8":-0.0197097812381992,"9":-0.2215551815246069,"10":0.3127496494026173}},{"sx":1,"sy":1,"depth":11,"w":{"0":0.1296312718374103,"1":0.431045885246211,"2":-0.21651116806163193,"3":0.21502152112685055,"4":-0.18156193656207367,"5":-0.046009309895605935,"6":0.5928738489733928,"7":0.1234316970495348,"8":-0.32217162997508025,"9":0.24902667178162763,"10":-0.4046858390189183}},{"sx":1,"sy":1,"depth":11,"w":{"0":-0.4209900269424974,"1":0.5206343709699397,"2":0.09286888065757795,"3":0.19466221536595493,"4":0.15754078558965517,"5":-0.22483304796263698,"6":0.16852210174146628,"7":-0.1474116265610441,"8":0.49402310798533233,"9":0.33676163294273675,"10":0.3365821237915141}},{"sx":1,"sy":1,"depth":11,"w":{"0":-0.24182730340838962,"1":-0.17694707356152406,"2":0.10599068538949202,"3":0.2006155708093656,"4":-0.514226428241703,"5":-0.2884949866828917,"6":0.6021326103420859,"7":0.1710729160783665,"8":0.3096516143568104,"9":-0.17015749339753217,"10":0.07603111775738039}},{"sx":1,"sy":1,"depth":11,"w":{"0":-0.29578037899853565,"1":0.15058299622535326,"2":0.06554088201461394,"3":-0.25043570789112163,"4":0.09998169743743691,"5":-0.14138676748815757,"6":0.7055690371180767,"7":-0.274609991421489,"8":-0.32296536416612986,"9":-0.11540216850014262,"10":-0.26845727727574586}}],"biases":{"sx":1,"sy":1,"depth":5,"w":{"0":0.1520559780423952,"1":0.07450354423635339,"2":0.20168342875904652,"3":0.29456918637531043,"4":0.2331796063586423}}},{"out_depth":5,"out_sx":1,"out_sy":1,"layer_type":"regression","num_inputs":5}]});
}